{
  "architecture": [
    3,
    16,
    8,
    1
  ],
  "weights": {
    "W1": [
      [
        1.4352917098598403,
        -0.8056195156332056,
        1.028152728238052
      ],
      [
        0.07175003679783831,
        -0.43022076845850554,
        -0.07016044575444602
      ],
      [
        0.3831894219498832,
        -1.1645171405461439,
        -0.28368192167494144
      ],
      [
        -1.5086957994834331,
        -0.5377105053234261,
        -0.6894336633660249
      ],
      [
        0.10489822293725387,
        0.13380793803184987,
        0.059412614293806745
      ],
      [
        1.764084317365303,
        -0.05710287781696648,
        1.0808981779007087
      ],
      [
        0.5355851110296941,
        -0.04447575458458121,
        1.8558993986463892
      ],
      [
        0.14142201331560283,
        1.171993000491226,
        0.3281158933126231
      ],
      [
        -0.7458494739550394,
        0.3589154589351187,
        -0.41531701235912083
      ],
      [
        -0.6027030928876527,
        0.2559629372627263,
        -0.7525328462519886
      ],
      [
        -1.5229504372968017,
        -1.4568986569525975,
        -0.05269713176079564
      ],
      [
        -1.9112137963181912,
        -0.13034748662966394,
        1.0762477458692286
      ],
      [
        -1.1761613945349214,
        0.4399614463895129,
        0.07882618068037581
      ],
      [
        -0.4470835775243596,
        1.7018414965329955,
        -0.7489215346411552
      ],
      [
        0.36700018238737836,
        -0.8506362141777335,
        1.107204082014959
      ],
      [
        -1.3396613308136112,
        -0.699543446495688,
        -0.9224636426444088
      ]
    ],
    "b1": [
      [
        -0.031992132547002734
      ],
      [
        -0.03641073001216011
      ],
      [
        0.009998799544743786
      ],
      [
        0.009931364460733536
      ],
      [
        -0.005439187858979829
      ],
      [
        0.030498010248566364
      ],
      [
        -0.03942043725784405
      ],
      [
        -0.007859027318759695
      ],
      [
        -0.009088879857920984
      ],
      [
        -0.03676795234278892
      ],
      [
        0.0043320558591212616
      ],
      [
        0.009192026602400365
      ],
      [
        0.044109764887297294
      ],
      [
        0.011076688041349467
      ],
      [
        -0.05823722398633324
      ],
      [
        0.001749662089160076
      ]
    ],
    "W2": [
      [
        0.5367467017034557,
        -0.19947971635287265,
        0.16360763858492888,
        -0.0425038053943039,
        0.20770863125007683,
        0.7816659472479035,
        -0.058556583081621094,
        -0.4136061762679961,
        0.32205569661828054,
        0.03005351877746002,
        0.34874877283004935,
        -0.10020649340566386,
        0.477036764043545,
        -0.37898634760354416,
        -0.12849441399264824,
        -0.3020417783727748
      ],
      [
        -0.3586241430328333,
        0.22199587564595932,
        0.33218878780018823,
        -0.021678656871513033,
        0.3856069798734238,
        -0.27398254079855383,
        -0.17895413888532086,
        0.02668097741217168,
        0.0734757108563755,
        0.1384309247436965,
        -0.3363458984283087,
        0.5828159936048576,
        0.6808406609945751,
        -0.05669014737390796,
        -1.311102670626931,
        0.15079755406787154
      ],
      [
        0.2776905733293537,
        -0.1441901978457426,
        -0.48570886366554716,
        -0.28809166215559817,
        0.15725426321197902,
        -0.5009433434169462,
        0.3517444894958214,
        -0.2378814764957819,
        -0.07923517494127277,
        -0.015589433262039008,
        0.02324953030963209,
        -0.17719775401055532,
        -0.4448339063894133,
        -0.005649262206236858,
        0.03390415340375186,
        0.0029149551777228645
      ],
      [
        0.1704209766780844,
        0.2577075507256535,
        0.30673741103571517,
        -0.37636996985498006,
        0.8714770592465229,
        0.7232471991006507,
        -0.10298691624688623,
        0.9195971575267753,
        0.31814947188345954,
        -0.824163330332916,
        -0.03732354131474797,
        0.17424807401699222,
        0.13800207144313026,
        0.7109515343022232,
        0.18558709955022537,
        -0.025388976187999505
      ],
      [
        0.16358239684782144,
        0.2615667951347388,
        0.2531958004096309,
        -0.19491465817534137,
        -0.8507788570081843,
        -0.11553708082744016,
        0.6712284313175598,
        -0.7315934031978146,
        -0.36333639391661193,
        0.0134524045977601,
        -0.5129245164067366,
        -0.7236935656234968,
        -0.19587702876463073,
        0.06736754688023092,
        0.6124051066138053,
        -0.14205274493995462
      ],
      [
        0.24602727504362787,
        -0.7628195794944301,
        1.0878750676408753,
        0.03227683384901951,
        -0.6260413104567579,
        -0.2407826871394575,
        -0.6513338955566472,
        0.028940139814956876,
        1.0712704507360253,
        -0.6128315822889157,
        0.1526267346186018,
        0.6562320022083079,
        -0.4052152545554567,
        -0.13282451101413523,
        0.5606065074658205,
        0.3982032176567049
      ],
      [
        0.1306273931892145,
        -0.5037283893546238,
        0.6481807168845202,
        0.2384638395796954,
        0.028651580925809876,
        0.44573086085058433,
        0.38526526194901395,
        -0.4351247320842583,
        -0.07912975268701632,
        -0.1799663602237496,
        -0.054641881868753114,
        -0.35847537681030317,
        0.20007107671248725,
        0.02536300202954478,
        0.39791520686297266,
        -0.17288703060695443
      ],
      [
        0.9836855673027479,
        1.3534101843007378,
        0.6295978080568386,
        -0.06441214790625593,
        -0.2695410123594991,
        -0.7153815212525297,
        0.02375687813681239,
        -0.009719698101006022,
        0.22731299500044688,
        0.4912469279255989,
        0.25807277287934455,
        -0.33456975881754675,
        0.1583829114755995,
        -0.8754805257831229,
        -0.3121550427335515,
        -0.531235729892834
      ]
    ],
    "b2": [
      [
        0.024162410159857175
      ],
      [
        0.009256554672180636
      ],
      [
        -0.04519761555723914
      ],
      [
        -0.04122792348818345
      ],
      [
        0.021352804916813923
      ],
      [
        0.03728177134431311
      ],
      [
        0.02721173258299007
      ],
      [
        0.018094980256868662
      ]
    ],
    "W3": [
      [
        0.1274980877546068,
        0.46833260529576903,
        0.19627237166978556,
        0.47918620358966124,
        0.2647595973470139,
        -0.48821072172244534,
        -0.5356024860908606,
        -0.048532249340258585
      ]
    ],
    "b3": [
      [
        -0.014708296303934786
      ]
    ]
  },
  "metrics": {
    "f1": 0.8852459016393442,
    "precision_f1": 0.8181818181818182,
    "recall_f1": 0.9642857142857143,
    "f2_at_f1": 0.9310344827586207,
    "threshold_f1": 0.44222465710955744,
    "precision_best": 0.8181818181818182,
    "recall_precision": 0.9642857142857143,
    "f1_at_precision": 0.8852459016393442,
    "threshold_precision": 0.44222465710955744,
    "f2": 0.9310344827586207,
    "precision_f2": 0.8181818181818182,
    "recall_f2": 0.9642857142857143,
    "threshold_f2": 0.44222465710955744,
    "meets_recall_target": true,
    "meets_precision_target": true
  },
  "training_info": {
    "method": "advanced_rl_evolution",
    "recall_target": 0.96,
    "precision_target": 0.8,
    "hidden_sizes": [
      16,
      8
    ]
  },
  "ensemble": {
    "meta_weights": [
      0.2,
      0.2,
      0.2,
      0.2,
      0.2
    ],
    "models": [
      {
        "weights": {
          "W1": [
            [
              1.4352917098598403,
              -0.8056195156332056,
              1.028152728238052
            ],
            [
              0.07175003679783831,
              -0.43022076845850554,
              -0.07016044575444602
            ],
            [
              0.3831894219498832,
              -1.1645171405461439,
              -0.28368192167494144
            ],
            [
              -1.5086957994834331,
              -0.5377105053234261,
              -0.6894336633660249
            ],
            [
              0.10489822293725387,
              0.13380793803184987,
              0.059412614293806745
            ],
            [
              1.764084317365303,
              -0.05710287781696648,
              1.0808981779007087
            ],
            [
              0.5355851110296941,
              -0.04447575458458121,
              1.8558993986463892
            ],
            [
              0.14142201331560283,
              1.171993000491226,
              0.3281158933126231
            ],
            [
              -0.7458494739550394,
              0.3589154589351187,
              -0.41531701235912083
            ],
            [
              -0.6027030928876527,
              0.2559629372627263,
              -0.7525328462519886
            ],
            [
              -1.5229504372968017,
              -1.4568986569525975,
              0.008429322121915897
            ],
            [
              -1.9112137963181912,
              -0.13034748662966394,
              1.0762477458692286
            ],
            [
              -1.1761613945349214,
              0.4399614463895129,
              0.07882618068037581
            ],
            [
              -0.4470835775243596,
              1.7018414965329955,
              -0.7489215346411552
            ],
            [
              0.36700018238737836,
              -0.8506362141777335,
              1.107204082014959
            ],
            [
              -1.3396613308136112,
              -0.699543446495688,
              -0.9224636426444088
            ]
          ],
          "b1": [
            [
              -0.031992132547002734
            ],
            [
              -0.03641073001216011
            ],
            [
              0.009998799544743786
            ],
            [
              0.009931364460733536
            ],
            [
              -0.0020603504150474863
            ],
            [
              0.030498010248566364
            ],
            [
              -0.03942043725784405
            ],
            [
              -0.007859027318759695
            ],
            [
              -0.009088879857920984
            ],
            [
              -0.03676795234278892
            ],
            [
              0.0043320558591212616
            ],
            [
              0.009192026602400365
            ],
            [
              0.044109764887297294
            ],
            [
              0.011076688041349467
            ],
            [
              -0.05823722398633324
            ],
            [
              -0.001142042650802303
            ]
          ],
          "W2": [
            [
              0.5367467017034557,
              -0.20190022193142262,
              0.16360763858492888,
              -0.0425038053943039,
              0.20770863125007683,
              0.7816659472479035,
              -0.058556583081621094,
              -0.4136061762679961,
              0.32205569661828054,
              0.03005351877746002,
              0.34874877283004935,
              -0.11924654301176428,
              0.477036764043545,
              -0.37898634760354416,
              -0.12849441399264824,
              -0.3020417783727748
            ],
            [
              -0.3586241430328333,
              0.22199587564595932,
              0.33218878780018823,
              -0.021678656871513033,
              0.3856069798734238,
              -0.3114239941670145,
              -0.17895413888532086,
              0.05244875683838775,
              0.0734757108563755,
              0.1384309247436965,
              -0.3363458984283087,
              0.5783527576491984,
              0.6808406609945751,
              -0.05669014737390796,
              -1.311102670626931,
              0.15079755406787154
            ],
            [
              0.2776905733293537,
              -0.1441901978457426,
              -0.4351621075413417,
              -0.28809166215559817,
              0.15725426321197902,
              -0.5009433434169462,
              0.3517444894958214,
              -0.2378814764957819,
              -0.07923517494127277,
              -0.015589433262039008,
              0.02324953030963209,
              -0.17719775401055532,
              -0.4448339063894133,
              -0.005649262206236858,
              0.03390415340375186,
              0.0029149551777228645
            ],
            [
              0.2465449998636263,
              0.2577075507256535,
              0.30673741103571517,
              -0.3203853342712202,
              0.8714770592465229,
              0.7098911663857262,
              -0.10298691624688623,
              0.9195971575267753,
              0.31814947188345954,
              -0.8335036197313332,
              -0.03732354131474797,
              0.20725768941024433,
              0.13800207144313026,
              0.7109515343022232,
              0.2299861618960751,
              -0.025388976187999505
            ],
            [
              0.16358239684782144,
              0.21234417118433938,
              0.2531958004096309,
              -0.19491465817534137,
              -0.8507788570081843,
              -0.11553708082744016,
              0.6712284313175598,
              -0.7315934031978146,
              -0.36333639391661193,
              0.0134524045977601,
              -0.5129245164067366,
              -0.7517762068159661,
              -0.19587702876463073,
              0.06736754688023092,
              0.6124051066138053,
              -0.14205274493995462
            ],
            [
              0.24602727504362787,
              -0.7612204937763093,
              1.0878750676408753,
              0.03227683384901951,
              -0.6260413104567579,
              -0.2407826871394575,
              -0.6319757097959889,
              0.028940139814956876,
              1.1211791026732876,
              -0.6128315822889157,
              0.1526267346186018,
              0.6562320022083079,
              -0.4052152545554567,
              -0.13990892352353337,
              0.5606065074658205,
              0.3982032176567049
            ],
            [
              0.17214036086957138,
              -0.5037283893546238,
              0.6481807168845202,
              0.2384638395796954,
              0.028651580925809876,
              0.44573086085058433,
              0.38526526194901395,
              -0.4351247320842583,
              -0.07912975268701632,
              -0.13056720470555885,
              -0.054641881868753114,
              -0.35847537681030317,
              0.20007107671248725,
              0.02536300202954478,
              0.39791520686297266,
              -0.17288703060695443
            ],
            [
              0.9836855673027479,
              1.400805415519353,
              0.6295978080568386,
              -0.06441214790625593,
              -0.2695410123594991,
              -0.7153815212525297,
              0.0434957388424867,
              -0.009719698101006022,
              0.22731299500044688,
              0.4912469279255989,
              0.25807277287934455,
              -0.33456975881754675,
              0.1583829114755995,
              -0.8754805257831229,
              -0.3121550427335515,
              -0.531235729892834
            ]
          ],
          "b2": [
            [
              0.024162410159857175
            ],
            [
              0.009256554672180636
            ],
            [
              -0.04519761555723914
            ],
            [
              -0.04122792348818345
            ],
            [
              0.01640531343707464
            ],
            [
              0.029814174975015824
            ],
            [
              0.031253077868363247
            ],
            [
              0.018094980256868662
            ]
          ],
          "W3": [
            [
              0.1274980877546068,
              0.46833260529576903,
              0.19492009183256417,
              0.47918620358966124,
              0.2647595973470139,
              -0.48821072172244534,
              -0.5356024860908606,
              -0.048532249340258585
            ]
          ],
          "b3": [
            [
              -0.011363216840666828
            ]
          ]
        },
        "metrics": {
          "f1": 0.8852459016393442,
          "precision_f1": 0.8181818181818182,
          "recall_f1": 0.9642857142857143,
          "f2_at_f1": 0.9310344827586207,
          "threshold_f1": 0.44186262817326155,
          "precision_best": 0.8181818181818182,
          "recall_precision": 0.9642857142857143,
          "f1_at_precision": 0.8852459016393442,
          "threshold_precision": 0.44186262817326155,
          "f2": 0.9310344827586207,
          "precision_f2": 0.8181818181818182,
          "recall_f2": 0.9642857142857143,
          "threshold_f2": 0.44186262817326155,
          "meets_recall_target": true,
          "meets_precision_target": true
        }
      },
      {
        "weights": {
          "W1": [
            [
              1.4352917098598403,
              -0.8056195156332056,
              1.028152728238052
            ],
            [
              0.07175003679783831,
              -0.43022076845850554,
              -0.07016044575444602
            ],
            [
              0.3831894219498832,
              -1.1645171405461439,
              -0.28368192167494144
            ],
            [
              -1.5086957994834331,
              -0.5377105053234261,
              -0.6894336633660249
            ],
            [
              0.10489822293725387,
              0.13380793803184987,
              0.059412614293806745
            ],
            [
              1.764084317365303,
              -0.05710287781696648,
              1.0808981779007087
            ],
            [
              0.5355851110296941,
              -0.04447575458458121,
              1.8558993986463892
            ],
            [
              0.14142201331560283,
              1.171993000491226,
              0.3281158933126231
            ],
            [
              -0.7458494739550394,
              0.3589154589351187,
              -0.41531701235912083
            ],
            [
              -0.6027030928876527,
              0.2559629372627263,
              -0.7525328462519886
            ],
            [
              -1.5229504372968017,
              -1.4568986569525975,
              -0.05269713176079564
            ],
            [
              -1.9112137963181912,
              -0.13034748662966394,
              1.0762477458692286
            ],
            [
              -1.1761613945349214,
              0.4399614463895129,
              0.07882618068037581
            ],
            [
              -0.4470835775243596,
              1.7018414965329955,
              -0.7489215346411552
            ],
            [
              0.36700018238737836,
              -0.8506362141777335,
              1.107204082014959
            ],
            [
              -1.3396613308136112,
              -0.699543446495688,
              -0.9224636426444088
            ]
          ],
          "b1": [
            [
              -0.031992132547002734
            ],
            [
              -0.03641073001216011
            ],
            [
              0.009998799544743786
            ],
            [
              0.009931364460733536
            ],
            [
              -0.005439187858979829
            ],
            [
              0.030498010248566364
            ],
            [
              -0.03942043725784405
            ],
            [
              -0.007859027318759695
            ],
            [
              -0.009088879857920984
            ],
            [
              -0.03676795234278892
            ],
            [
              0.0043320558591212616
            ],
            [
              0.009192026602400365
            ],
            [
              0.044109764887297294
            ],
            [
              0.011076688041349467
            ],
            [
              -0.05823722398633324
            ],
            [
              0.001749662089160076
            ]
          ],
          "W2": [
            [
              0.5367467017034557,
              -0.20190022193142262,
              0.16360763858492888,
              -0.0425038053943039,
              0.20770863125007683,
              0.7816659472479035,
              -0.058556583081621094,
              -0.4136061762679961,
              0.32205569661828054,
              0.03005351877746002,
              0.34874877283004935,
              -0.11924654301176428,
              0.477036764043545,
              -0.37898634760354416,
              -0.12849441399264824,
              -0.3020417783727748
            ],
            [
              -0.3586241430328333,
              0.22199587564595932,
              0.33218878780018823,
              -0.021678656871513033,
              0.3856069798734238,
              -0.3114239941670145,
              -0.15623631979578692,
              0.05244875683838775,
              0.0734757108563755,
              0.1384309247436965,
              -0.3363458984283087,
              0.5783527576491984,
              0.6808406609945751,
              -0.05669014737390796,
              -1.311102670626931,
              0.15079755406787154
            ],
            [
              0.2776905733293537,
              -0.1441901978457426,
              -0.48570886366554716,
              -0.28809166215559817,
              0.15725426321197902,
              -0.5009433434169462,
              0.3517444894958214,
              -0.2378814764957819,
              -0.07923517494127277,
              -0.015589433262039008,
              0.02324953030963209,
              -0.17719775401055532,
              -0.4448339063894133,
              -0.005649262206236858,
              0.03390415340375186,
              0.0029149551777228645
            ],
            [
              0.1704209766780844,
              0.2577075507256535,
              0.30673741103571517,
              -0.37636996985498006,
              0.8714770592465229,
              0.7232471991006507,
              -0.10298691624688623,
              0.9195971575267753,
              0.31814947188345954,
              -0.824163330332916,
              -0.03732354131474797,
              0.17424807401699222,
              0.13800207144313026,
              0.7109515343022232,
              0.18558709955022537,
              -0.025388976187999505
            ],
            [
              0.16358239684782144,
              0.2615667951347388,
              0.2531958004096309,
              -0.19491465817534137,
              -0.8507788570081843,
              -0.11553708082744016,
              0.6712284313175598,
              -0.7315934031978146,
              -0.36333639391661193,
              0.0134524045977601,
              -0.5129245164067366,
              -0.7236935656234968,
              -0.19587702876463073,
              0.06736754688023092,
              0.6124051066138053,
              -0.14205274493995462
            ],
            [
              0.24602727504362787,
              -0.7628195794944301,
              1.0878750676408753,
              0.03227683384901951,
              -0.6260413104567579,
              -0.2407826871394575,
              -0.6513338955566472,
              0.028940139814956876,
              1.0712704507360253,
              -0.6128315822889157,
              0.1526267346186018,
              0.6562320022083079,
              -0.4052152545554567,
              -0.13282451101413523,
              0.5606065074658205,
              0.3982032176567049
            ],
            [
              0.1306273931892145,
              -0.5037283893546238,
              0.6481807168845202,
              0.2384638395796954,
              0.028651580925809876,
              0.44573086085058433,
              0.38526526194901395,
              -0.4351247320842583,
              -0.07912975268701632,
              -0.1799663602237496,
              -0.054641881868753114,
              -0.35847537681030317,
              0.20007107671248725,
              0.02536300202954478,
              0.39791520686297266,
              -0.17288703060695443
            ],
            [
              0.9836855673027479,
              1.3534101843007378,
              0.6295978080568386,
              -0.06441214790625593,
              -0.2695410123594991,
              -0.7153815212525297,
              0.02375687813681239,
              -0.009719698101006022,
              0.22731299500044688,
              0.4912469279255989,
              0.25807277287934455,
              -0.33456975881754675,
              0.1583829114755995,
              -0.8754805257831229,
              -0.3121550427335515,
              -0.531235729892834
            ]
          ],
          "b2": [
            [
              0.016728617349123034
            ],
            [
              0.009256554672180636
            ],
            [
              -0.04519761555723914
            ],
            [
              -0.04122792348818345
            ],
            [
              0.021352804916813923
            ],
            [
              0.03728177134431311
            ],
            [
              0.02721173258299007
            ],
            [
              0.018094980256868662
            ]
          ],
          "W3": [
            [
              0.1274980877546068,
              0.46833260529576903,
              0.19627237166978556,
              0.47918620358966124,
              0.2647595973470139,
              -0.48821072172244534,
              -0.5356024860908606,
              -0.048532249340258585
            ]
          ],
          "b3": [
            [
              -0.014708296303934786
            ]
          ]
        },
        "metrics": {
          "f1": 0.8852459016393442,
          "precision_f1": 0.8181818181818182,
          "recall_f1": 0.9642857142857143,
          "f2_at_f1": 0.9310344827586207,
          "threshold_f1": 0.4417774125723919,
          "precision_best": 0.8181818181818182,
          "recall_precision": 0.9642857142857143,
          "f1_at_precision": 0.8852459016393442,
          "threshold_precision": 0.4417774125723919,
          "f2": 0.9310344827586207,
          "precision_f2": 0.8181818181818182,
          "recall_f2": 0.9642857142857143,
          "threshold_f2": 0.4417774125723919,
          "meets_recall_target": true,
          "meets_precision_target": true
        }
      },
      {
        "weights": {
          "W1": [
            [
              1.4352917098598403,
              -0.8056195156332056,
              1.028152728238052
            ],
            [
              0.07175003679783831,
              -0.43022076845850554,
              -0.07016044575444602
            ],
            [
              0.3831894219498832,
              -1.1645171405461439,
              -0.28368192167494144
            ],
            [
              -1.5086957994834331,
              -0.5377105053234261,
              -0.6894336633660249
            ],
            [
              0.10489822293725387,
              0.13380793803184987,
              0.059412614293806745
            ],
            [
              1.764084317365303,
              -0.05710287781696648,
              1.0808981779007087
            ],
            [
              0.5355851110296941,
              -0.04447575458458121,
              1.8558993986463892
            ],
            [
              0.14142201331560283,
              1.171993000491226,
              0.3281158933126231
            ],
            [
              -0.7458494739550394,
              0.3589154589351187,
              -0.41531701235912083
            ],
            [
              -0.6027030928876527,
              0.2559629372627263,
              -0.7525328462519886
            ],
            [
              -1.5229504372968017,
              -1.4568986569525975,
              -0.05269713176079564
            ],
            [
              -1.9112137963181912,
              -0.13034748662966394,
              1.0762477458692286
            ],
            [
              -1.1761613945349214,
              0.4399614463895129,
              0.07882618068037581
            ],
            [
              -0.4470835775243596,
              1.7018414965329955,
              -0.7489215346411552
            ],
            [
              0.36700018238737836,
              -0.8506362141777335,
              1.107204082014959
            ],
            [
              -1.3396613308136112,
              -0.699543446495688,
              -0.9224636426444088
            ]
          ],
          "b1": [
            [
              -0.031992132547002734
            ],
            [
              -0.03641073001216011
            ],
            [
              0.009998799544743786
            ],
            [
              0.009931364460733536
            ],
            [
              -0.005439187858979829
            ],
            [
              0.030498010248566364
            ],
            [
              -0.03942043725784405
            ],
            [
              -0.007859027318759695
            ],
            [
              -0.009088879857920984
            ],
            [
              -0.03676795234278892
            ],
            [
              0.0043320558591212616
            ],
            [
              0.009192026602400365
            ],
            [
              0.044109764887297294
            ],
            [
              0.011076688041349467
            ],
            [
              -0.05823722398633324
            ],
            [
              0.001749662089160076
            ]
          ],
          "W2": [
            [
              0.5367467017034557,
              -0.19947971635287265,
              0.16360763858492888,
              -0.0425038053943039,
              0.20770863125007683,
              0.7816659472479035,
              -0.058556583081621094,
              -0.4136061762679961,
              0.32205569661828054,
              0.03005351877746002,
              0.34874877283004935,
              -0.10020649340566386,
              0.477036764043545,
              -0.37898634760354416,
              -0.12849441399264824,
              -0.3020417783727748
            ],
            [
              -0.3586241430328333,
              0.22199587564595932,
              0.33218878780018823,
              -0.021678656871513033,
              0.3856069798734238,
              -0.27398254079855383,
              -0.17895413888532086,
              0.02668097741217168,
              0.0734757108563755,
              0.1384309247436965,
              -0.3363458984283087,
              0.5828159936048576,
              0.6808406609945751,
              -0.05669014737390796,
              -1.311102670626931,
              0.15079755406787154
            ],
            [
              0.2776905733293537,
              -0.1441901978457426,
              -0.48570886366554716,
              -0.28809166215559817,
              0.15725426321197902,
              -0.5009433434169462,
              0.3517444894958214,
              -0.2378814764957819,
              -0.07923517494127277,
              -0.015589433262039008,
              0.02324953030963209,
              -0.17719775401055532,
              -0.4448339063894133,
              -0.005649262206236858,
              0.03390415340375186,
              0.0029149551777228645
            ],
            [
              0.1704209766780844,
              0.2577075507256535,
              0.30673741103571517,
              -0.37636996985498006,
              0.8714770592465229,
              0.7232471991006507,
              -0.10298691624688623,
              0.9195971575267753,
              0.31814947188345954,
              -0.824163330332916,
              -0.03732354131474797,
              0.17424807401699222,
              0.13800207144313026,
              0.7109515343022232,
              0.18558709955022537,
              -0.025388976187999505
            ],
            [
              0.16358239684782144,
              0.2615667951347388,
              0.2531958004096309,
              -0.19491465817534137,
              -0.8507788570081843,
              -0.11553708082744016,
              0.6712284313175598,
              -0.7315934031978146,
              -0.36333639391661193,
              0.0134524045977601,
              -0.5129245164067366,
              -0.7236935656234968,
              -0.19587702876463073,
              0.06736754688023092,
              0.6124051066138053,
              -0.14205274493995462
            ],
            [
              0.24602727504362787,
              -0.7628195794944301,
              1.0878750676408753,
              0.03227683384901951,
              -0.6260413104567579,
              -0.2407826871394575,
              -0.6513338955566472,
              0.028940139814956876,
              1.0712704507360253,
              -0.6128315822889157,
              0.1526267346186018,
              0.6562320022083079,
              -0.4052152545554567,
              -0.13282451101413523,
              0.5606065074658205,
              0.3982032176567049
            ],
            [
              0.1306273931892145,
              -0.5037283893546238,
              0.6481807168845202,
              0.2384638395796954,
              0.028651580925809876,
              0.44573086085058433,
              0.38526526194901395,
              -0.4351247320842583,
              -0.07912975268701632,
              -0.1799663602237496,
              -0.054641881868753114,
              -0.35847537681030317,
              0.20007107671248725,
              0.02536300202954478,
              0.39791520686297266,
              -0.17288703060695443
            ],
            [
              0.9836855673027479,
              1.3534101843007378,
              0.6295978080568386,
              -0.06441214790625593,
              -0.2695410123594991,
              -0.7153815212525297,
              0.02375687813681239,
              -0.009719698101006022,
              0.22731299500044688,
              0.4912469279255989,
              0.25807277287934455,
              -0.33456975881754675,
              0.1583829114755995,
              -0.8754805257831229,
              -0.3121550427335515,
              -0.531235729892834
            ]
          ],
          "b2": [
            [
              0.024162410159857175
            ],
            [
              0.009256554672180636
            ],
            [
              -0.04519761555723914
            ],
            [
              -0.04122792348818345
            ],
            [
              0.021352804916813923
            ],
            [
              0.03728177134431311
            ],
            [
              0.02721173258299007
            ],
            [
              0.018094980256868662
            ]
          ],
          "W3": [
            [
              0.1274980877546068,
              0.46833260529576903,
              0.19627237166978556,
              0.47918620358966124,
              0.2647595973470139,
              -0.48821072172244534,
              -0.5356024860908606,
              -0.048532249340258585
            ]
          ],
          "b3": [
            [
              -0.014708296303934786
            ]
          ]
        },
        "metrics": {
          "f1": 0.8852459016393442,
          "precision_f1": 0.8181818181818182,
          "recall_f1": 0.9642857142857143,
          "f2_at_f1": 0.9310344827586207,
          "threshold_f1": 0.44222465710955744,
          "precision_best": 0.8181818181818182,
          "recall_precision": 0.9642857142857143,
          "f1_at_precision": 0.8852459016393442,
          "threshold_precision": 0.44222465710955744,
          "f2": 0.9310344827586207,
          "precision_f2": 0.8181818181818182,
          "recall_f2": 0.9642857142857143,
          "threshold_f2": 0.44222465710955744,
          "meets_recall_target": true,
          "meets_precision_target": true
        }
      },
      {
        "weights": {
          "W1": [
            [
              1.482934055049221,
              -0.8056195156332056,
              1.028152728238052
            ],
            [
              0.07175003679783831,
              -0.43022076845850554,
              -0.07016044575444602
            ],
            [
              0.3831894219498832,
              -1.1645171405461439,
              -0.28368192167494144
            ],
            [
              -1.5086957994834331,
              -0.5377105053234261,
              -0.6894336633660249
            ],
            [
              0.10489822293725387,
              0.13380793803184987,
              0.059412614293806745
            ],
            [
              1.764084317365303,
              -0.05710287781696648,
              1.0808981779007087
            ],
            [
              0.5355851110296941,
              -0.04447575458458121,
              1.8558993986463892
            ],
            [
              0.14142201331560283,
              1.171993000491226,
              0.3281158933126231
            ],
            [
              -0.7458494739550394,
              0.3589154589351187,
              -0.5035276637996676
            ],
            [
              -0.6027030928876527,
              0.3153519643784789,
              -0.7525328462519886
            ],
            [
              -1.5229504372968017,
              -1.4568986569525975,
              0.008429322121915897
            ],
            [
              -1.9112137963181912,
              -0.13034748662966394,
              1.0762477458692286
            ],
            [
              -1.1761613945349214,
              0.4399614463895129,
              0.07882618068037581
            ],
            [
              -0.4470835775243596,
              1.7018414965329955,
              -0.7489215346411552
            ],
            [
              0.36700018238737836,
              -0.8506362141777335,
              1.107204082014959
            ],
            [
              -1.3396613308136112,
              -0.699543446495688,
              -0.9224636426444088
            ]
          ],
          "b1": [
            [
              -0.031992132547002734
            ],
            [
              -0.03641073001216011
            ],
            [
              0.009998799544743786
            ],
            [
              0.009931364460733536
            ],
            [
              -0.0020603504150474863
            ],
            [
              0.030498010248566364
            ],
            [
              -0.033204700014114547
            ],
            [
              -0.007859027318759695
            ],
            [
              -0.009088879857920984
            ],
            [
              -0.03676795234278892
            ],
            [
              0.0043320558591212616
            ],
            [
              0.009192026602400365
            ],
            [
              0.044109764887297294
            ],
            [
              0.011076688041349467
            ],
            [
              -0.05823722398633324
            ],
            [
              -0.001142042650802303
            ]
          ],
          "W2": [
            [
              0.5367467017034557,
              -0.20190022193142262,
              0.16360763858492888,
              -0.0425038053943039,
              0.20770863125007683,
              0.7816659472479035,
              -0.058556583081621094,
              -0.4136061762679961,
              0.32205569661828054,
              0.03005351877746002,
              0.34874877283004935,
              -0.11924654301176428,
              0.477036764043545,
              -0.37898634760354416,
              -0.12849441399264824,
              -0.3020417783727748
            ],
            [
              -0.3586241430328333,
              0.22199587564595932,
              0.33218878780018823,
              -0.021678656871513033,
              0.3856069798734238,
              -0.3114239941670145,
              -0.15623631979578692,
              0.05244875683838775,
              0.0734757108563755,
              0.1384309247436965,
              -0.3363458984283087,
              0.5783527576491984,
              0.6808406609945751,
              -0.05669014737390796,
              -1.311102670626931,
              0.15079755406787154
            ],
            [
              0.2776905733293537,
              -0.1441901978457426,
              -0.4351621075413417,
              -0.28809166215559817,
              0.15725426321197902,
              -0.5009433434169462,
              0.3517444894958214,
              -0.2378814764957819,
              -0.07923517494127277,
              -0.015589433262039008,
              0.02324953030963209,
              -0.17719775401055532,
              -0.4448339063894133,
              -0.005649262206236858,
              -0.04165412391618449,
              0.0029149551777228645
            ],
            [
              0.2465449998636263,
              0.2577075507256535,
              0.30673741103571517,
              -0.3203853342712202,
              0.8714770592465229,
              0.7098911663857262,
              -0.10298691624688623,
              0.9195971575267753,
              0.31814947188345954,
              -0.824163330332916,
              -0.03732354131474797,
              0.20725768941024433,
              0.13800207144313026,
              0.7109515343022232,
              0.2299861618960751,
              -0.025388976187999505
            ],
            [
              0.16358239684782144,
              0.21234417118433938,
              0.2531958004096309,
              -0.19491465817534137,
              -0.8507788570081843,
              -0.11553708082744016,
              0.6712284313175598,
              -0.7315934031978146,
              -0.36333639391661193,
              0.0134524045977601,
              -0.4922065984195074,
              -0.7517762068159661,
              -0.19587702876463073,
              0.06736754688023092,
              0.6124051066138053,
              -0.14205274493995462
            ],
            [
              0.24602727504362787,
              -0.7612204937763093,
              1.0878750676408753,
              0.03227683384901951,
              -0.6260413104567579,
              -0.2407826871394575,
              -0.6319757097959889,
              0.028940139814956876,
              1.1211791026732876,
              -0.6128315822889157,
              0.1526267346186018,
              0.6562320022083079,
              -0.4052152545554567,
              -0.13990892352353337,
              0.5606065074658205,
              0.3982032176567049
            ],
            [
              0.17214036086957138,
              -0.5037283893546238,
              0.6481807168845202,
              0.2384638395796954,
              0.028651580925809876,
              0.44573086085058433,
              0.38526526194901395,
              -0.4351247320842583,
              -0.07912975268701632,
              -0.13056720470555885,
              -0.054641881868753114,
              -0.35847537681030317,
              0.20007107671248725,
              0.02536300202954478,
              0.39791520686297266,
              -0.17288703060695443
            ],
            [
              0.9836855673027479,
              1.400805415519353,
              0.6295978080568386,
              -0.06441214790625593,
              -0.2695410123594991,
              -0.7153815212525297,
              0.0434957388424867,
              -0.009719698101006022,
              0.22731299500044688,
              0.4912469279255989,
              0.25807277287934455,
              -0.33456975881754675,
              0.1583829114755995,
              -0.8754805257831229,
              -0.3121550427335515,
              -0.531235729892834
            ]
          ],
          "b2": [
            [
              0.016728617349123034
            ],
            [
              0.009256554672180636
            ],
            [
              -0.04519761555723914
            ],
            [
              -0.04122792348818345
            ],
            [
              0.01640531343707464
            ],
            [
              0.029814174975015824
            ],
            [
              0.031253077868363247
            ],
            [
              0.018094980256868662
            ]
          ],
          "W3": [
            [
              0.1274980877546068,
              0.46833260529576903,
              0.19492009183256417,
              0.47918620358966124,
              0.2647595973470139,
              -0.48821072172244534,
              -0.5356024860908606,
              -0.048532249340258585
            ]
          ],
          "b3": [
            [
              -0.011363216840666828
            ]
          ]
        },
        "metrics": {
          "f1": 0.8852459016393442,
          "precision_f1": 0.8181818181818182,
          "recall_f1": 0.9642857142857143,
          "f2_at_f1": 0.9310344827586207,
          "threshold_f1": 0.4408575404431134,
          "precision_best": 0.8181818181818182,
          "recall_precision": 0.9642857142857143,
          "f1_at_precision": 0.8852459016393442,
          "threshold_precision": 0.4408575404431134,
          "f2": 0.9310344827586207,
          "precision_f2": 0.8181818181818182,
          "recall_f2": 0.9642857142857143,
          "threshold_f2": 0.4408575404431134,
          "meets_recall_target": true,
          "meets_precision_target": true
        }
      },
      {
        "weights": {
          "W1": [
            [
              1.482934055049221,
              -0.8056195156332056,
              1.028152728238052
            ],
            [
              0.07175003679783831,
              -0.43022076845850554,
              -0.07016044575444602
            ],
            [
              0.3831894219498832,
              -1.1645171405461439,
              -0.28368192167494144
            ],
            [
              -1.5086957994834331,
              -0.5377105053234261,
              -0.6894336633660249
            ],
            [
              0.10489822293725387,
              0.13380793803184987,
              0.059412614293806745
            ],
            [
              1.764084317365303,
              -0.05710287781696648,
              1.0808981779007087
            ],
            [
              0.5355851110296941,
              -0.04447575458458121,
              1.8558993986463892
            ],
            [
              0.14142201331560283,
              1.171993000491226,
              0.3281158933126231
            ],
            [
              -0.7458494739550394,
              0.3589154589351187,
              -0.5035276637996676
            ],
            [
              -0.6027030928876527,
              0.3153519643784789,
              -0.7525328462519886
            ],
            [
              -1.5229504372968017,
              -1.4568986569525975,
              0.008429322121915897
            ],
            [
              -1.9112137963181912,
              -0.13034748662966394,
              1.0762477458692286
            ],
            [
              -1.1761613945349214,
              0.4399614463895129,
              0.07882618068037581
            ],
            [
              -0.4470835775243596,
              1.7018414965329955,
              -0.7489215346411552
            ],
            [
              0.36700018238737836,
              -0.8506362141777335,
              1.107204082014959
            ],
            [
              -1.3396613308136112,
              -0.699543446495688,
              -0.9224636426444088
            ]
          ],
          "b1": [
            [
              -0.031992132547002734
            ],
            [
              -0.03641073001216011
            ],
            [
              0.009998799544743786
            ],
            [
              0.009931364460733536
            ],
            [
              -0.0020603504150474863
            ],
            [
              0.030498010248566364
            ],
            [
              -0.033204700014114547
            ],
            [
              -0.007859027318759695
            ],
            [
              -0.009088879857920984
            ],
            [
              -0.03676795234278892
            ],
            [
              0.0043320558591212616
            ],
            [
              0.009192026602400365
            ],
            [
              0.044109764887297294
            ],
            [
              0.011076688041349467
            ],
            [
              -0.05823722398633324
            ],
            [
              -0.001142042650802303
            ]
          ],
          "W2": [
            [
              0.5367467017034557,
              -0.20190022193142262,
              0.16360763858492888,
              -0.0425038053943039,
              0.20770863125007683,
              0.7816659472479035,
              -0.058556583081621094,
              -0.4136061762679961,
              0.32205569661828054,
              0.03005351877746002,
              0.34874877283004935,
              -0.11924654301176428,
              0.477036764043545,
              -0.37898634760354416,
              -0.12849441399264824,
              -0.3020417783727748
            ],
            [
              -0.3586241430328333,
              0.22199587564595932,
              0.33218878780018823,
              -0.021678656871513033,
              0.3856069798734238,
              -0.3114239941670145,
              -0.15623631979578692,
              0.05244875683838775,
              0.0734757108563755,
              0.1384309247436965,
              -0.3363458984283087,
              0.5783527576491984,
              0.6808406609945751,
              -0.05669014737390796,
              -1.311102670626931,
              0.15079755406787154
            ],
            [
              0.2776905733293537,
              -0.1441901978457426,
              -0.4351621075413417,
              -0.28809166215559817,
              0.15725426321197902,
              -0.5009433434169462,
              0.3517444894958214,
              -0.2378814764957819,
              -0.07923517494127277,
              -0.015589433262039008,
              0.02324953030963209,
              -0.17719775401055532,
              -0.4448339063894133,
              -0.005649262206236858,
              -0.04165412391618449,
              0.0029149551777228645
            ],
            [
              0.2465449998636263,
              0.2577075507256535,
              0.30673741103571517,
              -0.3203853342712202,
              0.8714770592465229,
              0.7098911663857262,
              -0.10298691624688623,
              0.9195971575267753,
              0.31814947188345954,
              -0.824163330332916,
              -0.03732354131474797,
              0.20725768941024433,
              0.13800207144313026,
              0.7109515343022232,
              0.2299861618960751,
              -0.025388976187999505
            ],
            [
              0.16358239684782144,
              0.21234417118433938,
              0.2531958004096309,
              -0.19491465817534137,
              -0.8507788570081843,
              -0.11553708082744016,
              0.6712284313175598,
              -0.7315934031978146,
              -0.36333639391661193,
              0.0134524045977601,
              -0.4922065984195074,
              -0.7517762068159661,
              -0.19587702876463073,
              0.06736754688023092,
              0.6124051066138053,
              -0.14205274493995462
            ],
            [
              0.24602727504362787,
              -0.7612204937763093,
              1.0878750676408753,
              0.03227683384901951,
              -0.6260413104567579,
              -0.2407826871394575,
              -0.6319757097959889,
              0.028940139814956876,
              1.1211791026732876,
              -0.6128315822889157,
              0.1526267346186018,
              0.6562320022083079,
              -0.4052152545554567,
              -0.13990892352353337,
              0.5606065074658205,
              0.3982032176567049
            ],
            [
              0.17214036086957138,
              -0.5037283893546238,
              0.6481807168845202,
              0.2384638395796954,
              0.028651580925809876,
              0.44573086085058433,
              0.38526526194901395,
              -0.4351247320842583,
              -0.07912975268701632,
              -0.13056720470555885,
              -0.054641881868753114,
              -0.35847537681030317,
              0.20007107671248725,
              0.02536300202954478,
              0.39791520686297266,
              -0.17288703060695443
            ],
            [
              0.9836855673027479,
              1.400805415519353,
              0.6295978080568386,
              -0.06441214790625593,
              -0.2695410123594991,
              -0.7153815212525297,
              0.0434957388424867,
              -0.009719698101006022,
              0.22731299500044688,
              0.4912469279255989,
              0.25807277287934455,
              -0.33456975881754675,
              0.1583829114755995,
              -0.8754805257831229,
              -0.3121550427335515,
              -0.531235729892834
            ]
          ],
          "b2": [
            [
              0.016728617349123034
            ],
            [
              0.009256554672180636
            ],
            [
              -0.04519761555723914
            ],
            [
              -0.04122792348818345
            ],
            [
              0.01640531343707464
            ],
            [
              0.029814174975015824
            ],
            [
              0.031253077868363247
            ],
            [
              0.018094980256868662
            ]
          ],
          "W3": [
            [
              0.1274980877546068,
              0.46833260529576903,
              0.19492009183256417,
              0.47918620358966124,
              0.2647595973470139,
              -0.48821072172244534,
              -0.5356024860908606,
              -0.048532249340258585
            ]
          ],
          "b3": [
            [
              -0.011363216840666828
            ]
          ]
        },
        "metrics": {
          "f1": 0.8852459016393442,
          "precision_f1": 0.8181818181818182,
          "recall_f1": 0.9642857142857143,
          "f2_at_f1": 0.9310344827586207,
          "threshold_f1": 0.4408575404431134,
          "precision_best": 0.8181818181818182,
          "recall_precision": 0.9642857142857143,
          "f1_at_precision": 0.8852459016393442,
          "threshold_precision": 0.4408575404431134,
          "f2": 0.9310344827586207,
          "precision_f2": 0.8181818181818182,
          "recall_f2": 0.9642857142857143,
          "threshold_f2": 0.4408575404431134,
          "meets_recall_target": true,
          "meets_precision_target": true
        }
      }
    ]
  }
}